-0.265740 0.875490 -0.086517 0.592555 0.272275 0.449762 0.868472 0.657821 -0.662019 -0.519602 -0.194732 0.383368 -0.742602 0.129689 0.043168 -0.147028 0.196310 -0.631283 0.613595 -0.500835 0.299002 0.044781 -0.547511 1.380568 -1.093951
-0.099161 0.660167 -0.224857 -0.102215 -0.787815 -0.524297 -0.635866 -0.363044 0.329255 -0.006428 -0.115074 0.396398 0.092304 0.647017 0.826519 -0.143391 -0.630129 -0.194642 0.581053 0.478355 0.605840 -0.951733 -0.315234 0.728786 -0.072958
-0.527303 -0.416988 -0.156771 -0.213437 -0.720979 -0.610180 -0.025217 0.769572 0.595994 0.431559 -0.577860 0.152507 0.686786 0.677247 -0.530704 -0.054772 0.264472 0.427779 -0.449653 -0.720133 0.220974 0.883769 0.592507 0.089152 0.886254
-0.657993 -0.781112 0.092746 0.947761 -0.560868 -0.648500 0.146604 -0.625776 0.244921 -0.848922 -0.567666 0.078043 -0.621353 -0.511758 -0.572329 0.090064 0.509999 -0.727918 0.106620 -0.063519 -0.766179 -0.333664 -0.686633 0.066709 -0.772161
0.722606 -0.205062 0.434740 0.550790 -0.651789 0.214187 -0.504067 0.935698 0.041992 0.216926 -0.609470 -0.969692 0.312221 0.051946 -0.323731 0.437860 -0.593454 0.950886 -0.119421 0.395676 0.146751 -0.082900 -0.774607 -0.988041 -0.161447
0.670784 -0.623493 0.661359 0.643132 -0.068823 0.021962 0.953892 -0.804845 0.231191 -0.730900 -0.726484 -0.226971 0.736293 -0.114572 -0.777155 0.104715 -0.165727 -0.098854 0.263355 0.301734 0.506369 -0.840834 0.524582 -0.977528 -0.260926
-0.788464 0.855670 0.261430 0.486393 0.682258 -0.175990 0.824470 -0.257858 -0.749672 0.742095 -0.655512 -0.874177 -0.050570 -0.037017 0.415146 1.052919 0.358759 0.055344 -0.247132 -0.013773 -0.629537 -0.428315 0.415576 -0.250739 0.979955
0.626391 -0.381342 -0.619330 0.401943 0.611242 -0.643174 0.563300 0.755917 0.014463 -0.871217 0.224025 -0.515133 0.998176 0.560232 0.417936 -0.682598 0.313768 0.796893 0.797828 0.728100 0.054443 0.779451 0.417583 -0.776117 -0.032995
0.872303 -0.053038 -0.161897 -0.949280 -0.172159 0.443927 -0.649139 0.582510 -0.039237 -0.809784 0.093246 0.954828 -0.877002 0.069653 -0.384454 -0.699688 -0.657496 -0.618285 0.446296 0.534958 0.398045 -0.151577 -0.744387 0.512388 -0.796193
0.832393 0.182172 -0.442177 -0.350716 0.527922 0.518653 0.014380 -0.846966 0.011245 -0.875084 0.930993 -0.507565 -0.713941 -0.249485 -0.572945 0.803972 -0.980575 -0.628822 -0.552933 -0.019894 0.724323 -0.989621 0.352530 0.755022 -0.008852
0.013262 -0.700989 -0.073547 0.052947 0.112140 -0.162325 -0.584329 -0.816009 0.484934 0.590263 -0.157989 0.400910 0.538769 -0.517813 0.416716 0.257032 -1.229328 -0.107674 -0.813529 0.708860 -0.562461 -0.141665 0.684609 -0.175655 0.383479
-0.985751 -0.068070 0.646074 0.414435 0.195764 0.031793 -0.765564 -0.561696 -0.868794 -0.565123 -0.060946 -0.348204 -0.287385 0.988955 0.341248 -0.219911 -0.583204 0.701941 0.232146 0.412015 0.128227 0.595320 0.783602 -0.900367 0.963303
0.455007 0.680055 -0.226183 -0.561697 0.348999 -0.213465 0.732383 -0.468020 -0.338572 -0.368069 0.525926 0.042542 0.681898 -0.671441 0.649415 0.476913 0.714468 -0.507604 -0.135697 0.633613 0.473900 0.830776 -0.497563 0.225963 -0.716578
0.496652 0.819104 0.075774 0.981894 0.321292 -0.343281 -0.171356 0.087822 -0.438525 -0.742531 0.494282 0.936067 -0.653787 0.062916 0.747714 -0.786086 -0.969131 -0.512063 0.511331 0.989198 0.781609 -0.744208 -0.604908 0.311647 0.456314
-0.093905 -0.576639 0.646015 0.491627 -0.183257 -0.472585 0.485929 -0.880630 -0.281839 -0.391612 -0.554676 -0.077454 -0.418562 -0.056324 0.535583 0.047831 0.781100 0.498525 -0.910933 -0.249754 -0.126093 -0.208304 -0.019911 -0.737708 0.745679
-0.153532 -0.584184 -0.065224 0.976726 0.970766 -0.521376 0.264160 0.497956 -0.613931 -0.620794 -1.055629 0.651613 0.757671 0.778577 0.101275 -0.630122 0.857901 -0.029317 0.239631 -0.444688 -0.630784 0.962688 0.141730 -0.469497 -0.321677
-0.746229 -0.392251 -0.014340 -0.529597 -0.708851 0.926536 0.136559 0.213237 0.599538 -0.033765 0.999829 0.483571 0.298286 0.554643 -0.128806 0.405057 -0.391625 -0.109057 -0.522687 0.280267 -0.824457 0.926165 0.378247 0.135857 -0.363474
0.422328 0.825720 0.293473 -0.525184 -0.686957 -0.930686 -0.637472 0.575076 -0.275768 -0.890465 -0.852425 -0.096858 0.268285 -0.270150 -0.900683 -0.421991 -0.355126 -0.978146 0.380147 -0.704391 -0.217958 -0.514184 -0.723667 -0.202279 0.389067
-0.847106 -0.191126 0.240404 0.080046 0.667010 0.402228 0.601087 -0.332075 -0.491588 -0.128325 -0.094602 -0.691519 -0.886293 -0.143284 0.306264 -0.945698 0.209645 -0.200078 0.100670 0.865510 0.806793 0.482147 -0.369250 0.244795 0.645322
0.330207 0.090312 -0.902551 -0.107959 0.741549 -0.552431 0.434748 0.595580 -0.200317 0.179999 0.426693 -0.887224 0.115585 0.415273 0.978233 -0.227890 0.781644 0.764050 -0.775357 0.471993 0.576230 -0.959796 -0.346482 1.044468 0.425338
-0.703480 -0.495936 0.309478 0.268205 0.637916 -0.746076 -0.948146 -0.899785 -0.271251 0.152313 0.643934 0.776841 0.933885 -0.778549 -0.120958 0.068887 0.550933 0.525030 1.045295 -0.520923 -0.664654 -0.618987 -0.481672 0.122122 0.109568
0.112329 -0.204993 0.054365 -0.566975 -0.136670 -0.779869 0.024576 -0.471814 0.936097 -0.925438 0.727142 0.959844 -0.866080 0.725555 0.558703 0.295858 0.756615 -0.484676 0.464940 -0.654201 -0.167388 0.058868 0.637287 0.014958 0.117883
-0.377350 0.814604 -0.098036 -0.444599 0.365424 1.021861 -0.168490 0.860444 0.302119 0.664225 0.116807 -0.498741 0.722551 0.930649 0.207676 0.876724 -0.584561 0.907617 -0.333027 0.821753 0.608613 0.235927 0.750654 0.906486 0.846530
-0.242659 -0.276592 0.501961 -0.565534 0.369400 0.078655 -0.059396 0.099548 0.789139 0.576323 0.174246 -0.571055 -0.197421 -0.838188 0.705324 -0.361827 0.678021 0.714048 -0.417879 0.347492 0.552801 0.825402 0.398086 -0.445412 -0.468715
0.634540 -0.590399 0.518478 -0.180736 -0.273890 -0.425009 -0.976683 0.383041 0.211607 0.639979 -0.279305 0.682050 0.874368 -0.209486 0.278416 -0.965586 -0.614683 0.830981 0.610502 0.893840 -0.587998 -0.218497 0.756882 0.710442 -0.623767
0.500381 -0.509635 -0.237143 -0.195205 0.632567 0.155724 0.642509 0.974401 -0.669190 0.035175 0.312166 0.309117 0.813300 0.506491 -0.915176 0.928973 0.369733 0.770605 -0.000615 -0.521291 -0.179341 0.620013 -0.876605 0.094897 -0.671072
0.776990 -0.625090 1.092743 0.244089 -0.784619 0.531807 -0.231086 -0.301235 -0.758635 0.125281 -0.384501 0.360472 0.101261 0.258795 -0.869475 -0.851251 0.659213 -0.536090 0.638122 -0.213898 0.040261 0.722192 0.379048 0.670301 -0.905152
-0.015444 -0.329286 -0.029729 0.459972 0.347020 0.589213 -0.105842 -1.212849 -0.393420 -0.787395 0.606808 0.862732 0.457856 -0.788075 -1.207644 -0.141776 -0.059571 -0.671071 0.453826 -0.293492 1.222192 0.096992 0.264802 -0.797310 0.104318
-0.191577 0.323581 -0.562266 -0.342679 0.192958 0.125349 -0.736629 0.335191 1.094425 0.097663 1.059191 -0.046825 0.076495 0.382727 0.935555 0.411950 0.845978 0.039302 -0.078351 1.403274 0.249220 -0.860255 0.408608 0.231611 -0.470287
0.525299 -0.307336 -0.684411 -0.463966 -0.251868 -0.766414 0.251875 0.874956 0.196634 0.921860 -0.758524 0.684385 -0.645710 0.587432 -0.762642 0.637600 -0.056891 -0.886719 -0.758010 0.100317 0.219807 0.159284 -1.025853 0.659935 -0.153669
0.828630 -0.527311 -0.108240 -0.614333 -0.593900 -0.703513 0.506854 0.845735 0.551525 -0.134826 0.541666 -0.450927 0.726690 -0.212194 0.066933 0.779391 -0.885038 -0.324333 -1.261842 -0.154005 -0.655118 0.069087 0.379377 1.034575 0.230477
0.925678 -0.779676 -0.787623 -0.335990 -0.238251 0.940587 -0.906881 -0.179153 -0.018125 0.342022 -0.769650 0.372349 0.808961 0.520366 0.919091 -0.009830 0.025282 0.288322 -0.690065 0.706863 -0.575712 -0.415695 0.122395 0.791241 -0.111165
-0.268345 -0.958441 -1.487960 -0.606093 -0.025194 0.154928 -0.195829 -0.712277 -0.280313 -0.994592 -0.551454 -0.765433 -0.957599 -0.508023 0.296294 -0.576012 -1.001139 -0.477957 -1.186334 0.460067 -0.826331 0.138397 -1.012068 0.263514 -0.381386
0.858608 0.016860 0.677750 -0.489380 -0.086172 0.931315 -0.287082 -0.346626 0.097755 0.569952 1.040054 -0.730263 -0.526668 -0.095546 -0.299283 -0.747888 -0.562052 -0.049476 -0.397168 -0.467018 -0.040821 -0.253466 -0.116988 -0.393009 -0.036974
0.814300 -0.218442 1.686278 -0.386956 -0.874511 -0.619261 0.296640 -1.020797 -0.942132 -0.719625 -0.539222 -0.349996 -0.421700 0.327066 -0.402628 0.632652 -0.170228 -0.122832 1.703335 -0.177770 -0.259397 1.396156 0.130965 -1.352468 0.964183
-0.586483 -0.436721 0.110086 0.482554 -0.610085 0.978731 -0.814020 0.855135 -0.983028 -0.823373 -0.885918 -0.883113 0.114513 0.962942 -0.234756 0.733076 0.379379 0.611046 -0.853283 0.366387 0.036036 -0.123664 -0.392283 0.114446 0.702254
-0.146024 0.726695 -0.452421 -0.106936 -0.688899 -0.772108 0.042127 0.787366 -0.019010 0.186639 -0.385967 0.863144 -0.469531 0.554254 0.193302 -0.156191 0.587402 -0.797867 -0.273052 -0.330698 -0.697712 0.155510 0.408554 0.432223 -0.264313
0.447763 0.633439 0.621458 0.249314 -0.115704 0.772525 -0.203886 -0.045543 0.531901 -0.986537 0.955239 -0.519858 1.079611 0.176246 -0.197732 0.101170 -0.702999 0.347360 0.680092 -0.207435 1.062707 -0.284507 -0.062447 -0.823203 -0.374504
0.115982 0.878693 0.601725 -0.481467 -0.794205 -0.617469 -0.675766 -0.725701 0.950545 -0.480386 -0.983038 0.784592 0.309855 -0.888369 0.684002 0.927529 -0.976454 -0.645945 0.296684 0.406212 0.324193 -0.464419 -0.368454 0.869412 -0.936527
0.510688 -0.606704 -0.974962 -0.066420 0.948305 0.266559 0.393285 0.399637 0.508014 -1.142430 0.121295 0.543427 0.092477 -0.314097 0.256528 -0.954851 -0.514507 0.124816 -1.350878 -0.576668 0.818962 -0.624604 0.383063 0.563197 0.670722
-0.628996 -0.352988 -0.151437 -0.720107 -0.366504 -0.330762 -0.033614 -0.243235 -0.758884 -0.861042 0.498199 -0.218925 -0.702613 -0.449814 -1.170594 0.943274 1.197673 -0.968594 -0.278721 -0.333670 0.148507 -0.784720 -0.109431 0.449239 0.968935
0.412615 0.256058 -0.039804 -0.565682 -0.414901 -0.715017 -0.744895 -0.495339 -0.444544 0.302328 0.551116 -0.408735 -0.373097 0.007523 -0.893224 0.492440 0.493157 0.307217 -0.859595 0.775995 0.837131 -0.431630 0.666146 -0.334728 -0.427711
0.767365 0.352046 -0.124535 -0.964468 0.004988 -0.116702 -0.048885 0.969078 -0.591855 -0.323764 0.405673 0.709973 0.244755 -0.528299 0.767909 -0.620701 0.356104 -0.165879 -0.481753 -0.060843 0.383539 -0.566855 -1.017233 -0.034788 0.494239
0.449598 0.852526 0.288547 -0.672243 -0.624188 0.352902 0.784984 -0.716626 -0.724451 -0.714029 -0.775622 1.011040 -0.777258 -0.407837 -0.214046 0.475995 0.939453 0.280483 0.961323 -1.112977 0.240636 0.735867 -0.309599 -1.151715 -0.819999
-0.781187 -0.184072 0.598811 -0.013913 -0.933645 -0.479213 -0.832867 -0.321510 -0.294527 0.376258 -0.776793 0.446861 -0.580439 0.036498 0.732355 0.193405 -0.670781 0.650888 0.737308 0.463530 -0.765447 0.751936 -0.136600 0.426460 0.104135
-0.140145 0.088276 0.201807 0.816457 -0.802745 -0.329841 0.745587 -0.595333 -0.047122 0.608456 -0.655501 -0.795152 -0.465285 0.863991 0.508718 0.363025 0.297575 0.180384 0.503135 0.127347 -0.544424 0.384167 0.813664 -0.502745 -0.448216
0.690481 0.334977 -1.068545 0.155270 0.674457 -0.272355 0.902025 -0.099672 0.663350 -0.780670 -0.517704 -0.901847 -0.311095 0.562788 0.885459 -0.496328 0.469392 0.690563 -0.129540 0.522781 -0.759468 0.845965 -0.559840 0.847098 0.866459
-0.731412 -0.633787 0.481069 -0.267289 0.435080 -0.025524 0.218733 0.900282 0.157488 -0.401211 0.537756 0.930045 -0.301838 -0.306113 0.051832 -0.425545 0.492880 0.488166 0.121027 0.063360 -0.854080 -0.028376 -0.321553 -0.820211 -0.525487
0.071422 0.034881 0.133452 -0.677682 0.770414 0.447109 -0.806445 0.884212 0.116766 0.673536 0.023963 0.358420 -0.425597 0.515121 -0.746583 0.163105 0.906854 -0.229361 -0.608268 -0.589257 -0.848784 0.213320 0.385542 0.363672 -0.162203
0.159170 -0.749064 -0.357030 -0.919832 -0.586542 -0.484623 0.838444 0.492525 0.536792 0.664039 -0.701097 -0.539549 -0.060809 -0.025936 0.196030 -0.719738 0.088831 -0.933609 0.135656 -0.546630 -0.815759 0.797893 -0.444856 0.989476 -0.645670
-0.660245 -0.778584 0.049324 0.336369 -0.387521 0.209041 -0.062290 0.681186 -0.461338 -0.421681 0.264332 0.116752 0.108618 -0.602005 -0.405368 -0.416673 0.672588 -0.916243 -0.307484 0.663199 -0.677918 0.193420 -0.023175 0.361911 -0.739595
0.343017 -0.238288 0.887076 -0.320025 0.920407 -0.178027 -0.359381 -0.279808 -0.304093 0.166306 0.941455 0.879032 -0.238302 -0.144176 -0.398443 -0.319843 -0.115950 0.466803 0.891085 -0.051469 0.188276 0.513314 0.345873 0.380282 -0.300807
0.269723 -0.347119 0.771158 0.279697 -0.815936 0.575010 -0.402919 -0.148859 -0.440591 -0.682617 0.722585 -0.093347 0.551129 0.888066 0.280711 0.098698 -0.446078 -0.548642 -0.589018 0.177845 0.347264 -0.740260 0.446533 -0.863109 -0.796404
0.551045 1.004114 0.554609 0.161022 -0.505577 -0.496383 0.220092 -0.199703 0.619340 -0.755458 0.611861 0.632328 -0.550973 -0.097688 0.653350 0.158649 0.282066 0.294184 -0.441411 0.264130 0.541077 -0.370610 -0.947374 -0.256960 0.650026
0.068129 -0.112552 -0.133509 0.941551 0.904525 0.331588 -0.138417 -0.469612 -0.553255 -0.386139 -0.935984 0.509744 0.012653 -0.583778 0.628960 0.105306 0.356742 -0.311429 -0.482069 0.705971 -0.597903 -0.617816 -0.518533 0.087473 -0.717688
0.789090 0.064497 -0.702522 -0.140473 0.179474 0.254069 -0.218417 0.877006 0.821277 -0.929098 -0.649245 0.439079 -0.218631 0.351466 -0.061561 0.857673 -0.695374 -0.080371 0.424653 -0.745399 -0.242924 -0.498015 0.201142 -0.419394 0.456513
-0.553490 0.951854 -0.647053 -0.472845 -0.385016 -0.156770 0.910289 0.138723 0.818435 0.317075 0.387383 -0.676798 -0.564719 -0.122038 -0.353273 0.043125 -0.000853 -0.729063 0.417023 -0.230018 0.332292 -0.880278 -0.722696 -0.558064 -0.656960
-0.267175 0.209316 -0.767561 -0.943420 -0.111832 0.422454 0.588975 -0.649185 -0.704820 0.705708 1.110331 -0.929012 0.565824 0.840457 0.127053 0.812669 -0.580481 -0.263459 0.424408 0.334414 -0.931255 0.977047 -0.540344 -0.266692 -0.832182
0.436221 -0.166835 -0.341983 -0.549609 -0.496067 0.345881 0.382557 -0.927206 0.717946 -0.672545 0.545976 -0.446597 0.597516 -0.091951 -1.092819 -0.633679 0.388355 -0.318840 -0.446353 -0.644565 0.324381 1.142961 0.592525 -1.212022 -0.236642
-0.603290 0.282806 -1.667920 -0.829082 0.619557 -0.563251 -0.635269 0.422133 0.376289 -0.058745 0.671799 0.198635 0.426732 0.589947 -0.674043 0.899215 0.182530 0.683721 -0.239771 0.841918 -0.238453 -0.602010 -0.773736 -0.008484 -0.162868
-0.612468 -0.442480 1.221512 0.968899 0.792301 -0.833096 -0.781992 0.138845 0.387494 0.259790 -0.438709 0.378027 -0.350521 0.318330 -0.724457 -0.576403 0.860274 0.035081 0.825887 -1.234290 -0.476502 0.950940 0.453687 0.792065 -0.173115
-0.393375 0.992718 -0.205903 -0.959103 0.717427 0.242922 0.592613 -0.928089 0.590526 0.550079 0.422083 0.389504 -0.148129 -0.042102 -0.145230 -0.605985 -0.458484 0.218945 -0.944422 -0.365056 -0.719820 0.382391 -0.993059 0.892000 -0.494140
-0.432253 -0.831726 -0.742036 -0.577818 -0.378869 -0.870575 -0.382993 0.204843 0.799508 -0.017793 0.624548 0.274953 0.440838 0.067833 -0.331791 -1.071833 0.659144 0.529590 -0.760148 0.018331 -1.057374 -0.175285 -0.335346 0.510674 -0.509976
0.177059 -0.654167 0.003047 -0.423602 -0.757314 -0.137294 -0.034385 -0.716428 -0.417496 0.480218 0.584560 -0.076299 -0.405802 0.308434 0.668838 0.619114 -0.715440 -0.383894 0.599771 0.944434 -0.242701 0.782586 0.597513 0.549682 0.985198
-0.575262 0.196412 0.607567 0.204393 0.323495 -0.862744 0.039571 -0.947119 -0.484687 0.445192 0.079150 -0.268466 -0.064698 0.136534 -0.459541 0.549439 0.072820 0.167577 -0.541190 0.002866 0.240762 -0.713359 0.525560 -0.471515 0.984111
0.384173 0.344693 0.751881 -0.237024 -0.193872 0.455723 0.441757 -0.783222 -0.385158 0.826659 -0.289330 -0.749020 -0.455533 -0.458515 0.614738 -0.560403 -0.121747 0.140095 0.401553 0.570120 0.225433 0.925448 -0.190007 0.423597 -0.490002
0.788210 0.184320 -0.096380 -0.393457 0.292767 0.211358 0.351137 0.507497 -0.603754 0.439973 0.416053 0.036648 -1.064369 -0.496753 0.656892 0.100592 0.246354 -0.675471 0.280749 -0.062377 0.703015 0.796594 0.617120 -0.117316 0.751556
0.165589 -0.364403 0.546915 -0.118241 -0.186984 0.412967 -0.258633 -0.790464 -0.269938 -0.510318 0.767617 -0.252470 0.046317 0.050884 -0.130462 -0.870706 -0.644471 -0.534390 -0.642636 -0.488445 0.884299 0.210228 0.078316 0.370222 0.060839
0.761473 -0.146744 0.479337 0.478147 0.701181 -0.704370 -0.495140 -0.357567 0.652067 0.841070 -0.998971 0.336669 -0.055264 0.660499 0.138099 -0.018365 -0.271471 0.502701 -0.363685 -0.542164 0.679472 0.298054 -0.348136 0.008550 0.230902
-0.955140 -0.620895 -0.769814 -0.281839 -0.827541 0.355087 0.433878 -0.145577 0.535368 0.717180 0.730637 0.756842 1.031467 0.081066 0.378349 0.656835 -0.305154 -0.626551 0.239543 -0.458801 -0.713380 0.218518 0.460775 0.971677 0.217099
0.511318 -0.056814 1.411699 -0.709061 0.710004 -0.355320 0.545554 -0.443378 -0.365174 -0.370079 -1.168367 -0.151763 0.835267 0.156253 0.350004 -0.581811 -0.590917 -0.708871 0.314432 0.035960 -0.610797 0.769844 -0.442739 -0.369146 0.860769
0.920724 0.065174 -0.713124 -0.106808 0.520024 0.639127 -0.423930 0.069127 -0.753763 -0.603590 -0.813540 -0.345083 -0.046149 0.339404 -0.419323 0.749158 0.827040 0.045089 0.064633 0.359149 0.524925 0.211062 -0.556648 -0.175941 0.731362
0.455697 0.962855 -0.855502 -0.461957 0.759279 -0.819640 -0.618919 0.745063 0.560087 0.333716 -0.485897 -0.845126 0.562699 -0.449121 0.848726 0.547747 -0.363683 0.501885 0.276082 0.010590 0.354198 -0.338650 -0.296296 -0.870101 -0.796423
-0.337330 -0.739434 -0.695729 -0.409324 0.159441 -0.763536 0.172400 -0.331075 0.015164 -0.673570 0.085887 -0.757358 0.531217 0.088231 0.131962 0.861851 -0.059924 1.119525 0.125334 0.919582 0.447383 -0.340158 -0.423040 -0.610937 -0.514064
-0.859066 -0.678334 0.102363 0.380581 -0.885754 0.675441 -0.093369 -0.155741 -0.823579 -0.596571 0.305736 -0.919388 -0.550737 0.624825 -0.131999 -0.629462 0.195231 0.672239 -1.116318 0.218652 -0.823583 -0.429077 0.442442 0.945999 -0.077152
0.111167 -0.421275 -0.345788 0.879681 0.104921 0.672254 -1.002200 -0.866443 -0.633340 0.270929 0.338383 -0.040682 -0.176572 0.086501 0.147679 -0.483763 0.922357 -0.373895 -0.240326 0.076765 0.664943 0.234668 0.431808 0.002846 -0.775571
0.235143 -0.169751 0.459507 -0.926207 0.512997 -0.374753 0.581489 -0.103256 0.773787 0.440719 -0.683517 0.698752 -0.192313 -0.455171 -0.481417 -0.889088 0.540025 0.451805 0.116601 0.939628 0.998698 0.572791 0.310532 0.003670 0.750062
0.726116 -0.206608 0.495122 -0.747083 -0.429486 0.534855 0.942501 -0.165083 -0.779305 -0.919461 0.852948 -0.545836 0.504820 -0.558541 -0.764119 -0.598076 0.073161 0.308449 -0.336452 0.137383 0.558953 0.473510 -0.015518 0.696832 -0.906431
-0.144774 -0.812132 -0.308674 0.037989 0.800091 -0.817425 0.090176 0.338525 -0.925709 0.184238 -0.035305 0.812368 -0.866687 -0.368794 -0.149814 0.357736 -0.405724 0.497445 0.704510 0.876337 -0.539567 0.905901 0.896497 0.802922 -0.277079
0.675267 -0.215213 0.900136 -0.410275 0.955992 0.970829 -0.241622 -0.301659 0.639446 0.435424 0.125531 0.405447 -0.357105 -0.367682 0.507429 0.388998 0.798421 -0.843415 0.638222 0.836755 -0.398930 0.201900 -0.040426 -0.916586 -0.062658
-0.725271 -0.294882 -0.636950 0.771309 0.569015 0.071378 0.510819 0.936903 -0.209984 0.308694 0.470872 0.954570 0.100519 -0.726661 0.001320 0.874063 -0.938294 -0.753963 -0.005121 0.106393 0.894053 -0.226657 0.597369 -0.763795 0.335370
0.692577 0.248309 -0.724827 0.934533 -0.116327 0.922811 -0.043831 -0.409042 0.146118 -0.809766 0.494399 -0.218332 0.348566 -0.092093 -0.840748 -0.336307 -0.696989 -0.562230 -0.705821 -0.837137 -0.318183 -0.619599 0.263788 0.205164 0.424736
-0.426783 0.850704 0.158257 0.857183 0.805748 -0.272573 0.562105 -0.910571 0.135697 0.672208 -0.235510 0.106128 0.013393 -0.747364 0.767060 -0.735393 0.948461 0.661999 -0.939052 0.579474 0.995060 0.353582 0.902457 -0.860715 0.178663
0.160286 0.970427 0.581547 0.282902 -0.957205 -0.389135 0.238286 0.132142 -0.277399 -0.393820 0.003138 0.631202 0.336503 0.419993 -0.921027 0.911010 -0.749601 -0.404326 0.755623 0.523372 0.649183 0.012277 -0.906152 -0.135975 -0.564187
0.141758 -0.861546 -0.559361 -0.653405 0.731588 -0.549001 0.946782 0.460464 -0.127640 -0.527703 -0.314685 0.241882 0.108174 0.956873 -0.525890 0.652905 0.153745 -0.180600 -1.028284 -0.870927 0.476842 0.398166 -0.012223 1.058414 0.941640
-0.575522 0.623860 -0.682700 -0.018395 -0.359025 -0.686690 -0.220023 -0.295245 -0.551975 -0.785259 0.584485 -0.734023 0.075764 0.672429 -0.449480 -0.773057 0.878218 -0.773077 -0.465530 0.249399 0.400920 -0.654327 -0.549906 0.958299 0.649835
-0.504327 0.016249 -0.619163 0.687500 -0.074686 0.601004 0.642916 -0.341840 0.059873 0.554439 -0.313389 0.092372 -0.929717 -1.046330 0.763084 -0.414169 0.259265 -0.459873 -0.437796 -0.305589 0.308115 -0.635081 0.247996 0.715351 -0.895688
0.851084 -0.353449 -0.800073 0.007859 0.912540 -0.730953 0.730476 0.039017 0.646961 -0.707995 -0.524675 -0.029482 -0.963845 0.720728 -0.858659 -0.261174 -0.683881 -0.116171 -0.074475 -1.002479 -0.412842 -0.395986 -0.375617 0.479971 0.373914
0.705577 -0.584455 0.677068 -0.077994 -0.268523 -0.207556 -0.486927 0.328511 0.720289 0.691958 -0.322739 0.992877 0.964741 0.316823 0.579001 0.336822 -0.550111 0.333165 -0.142190 -0.805545 -0.752515 0.404529 -0.067065 0.750904 0.897462
-0.612749 -0.445554 0.165089 0.190082 -0.990609 -0.029791 0.680453 0.713089 0.196246 0.931394 -0.028403 0.408697 0.716032 -0.664859 0.974417 0.708258 -0.293248 0.841359 0.553442 0.856431 0.478895 0.381737 -0.847962 -0.594401 0.002716
0.335345 0.078265 -0.721953 0.499659 0.249211 0.079807 0.741286 0.906956 -0.529923 0.623124 -0.755080 -0.419044 -0.976646 0.449166 -0.622982 0.304498 0.114293 -0.227707 0.172511 -0.766755 0.414543 1.032611 -0.483481 0.085673 0.299782
-0.300995 0.103437 -0.917247 -0.509015 0.791488 0.295579 -0.062981 -0.738749 0.501106 -0.683273 -0.354850 0.348689 -0.099718 -0.648146 0.141957 0.665794 -0.316737 -0.888807 0.474491 0.614864 -0.125821 0.249436 -0.670207 -0.341887 -0.949338
-0.259904 0.382539 -0.529716 -0.607875 0.324904 0.998265 0.206319 -0.713456 -0.589851 0.221955 0.892277 -0.744395 0.457669 -0.784255 -0.704481 -0.482600 0.696581 0.261586 -0.174103 -0.768153 0.423820 0.466663 0.445338 0.291493 0.211300
-0.059249 0.889693 0.339057 0.132344 0.797053 -0.559731 -0.103878 -0.260059 0.783160 0.430402 0.397973 0.260943 -0.191617 0.784742 -0.784166 0.446803 0.846618 -0.117514 -0.285611 -0.191195 -0.624871 0.531374 0.590015 0.488338 -0.339791
0.161194 0.102902 0.833006 0.732428 -0.433578 -0.364710 -0.186899 0.561343 0.128414 -0.857279 -0.163607 -0.216885 0.921001 0.478251 -0.861709 -0.720151 -0.763956 -0.955489 -0.506880 -0.848542 0.769606 0.493354 -0.324734 0.172871 -0.241482
0.179672 0.325435 -0.402438 -0.733185 0.783173 0.596568 0.846977 -0.892867 0.958017 0.873831 0.810619 0.046507 -0.547560 0.629779 -0.688090 0.809179 0.682244 -0.913280 -0.220134 -0.084882 0.057948 -0.679593 0.191534 0.571677 -0.417240
0.725919 -0.291069 0.073989 -0.139430 0.508377 -0.124279 0.770201 -0.795061 -0.222356 -0.533018 0.579846 -0.172418 0.944937 0.564698 -0.042559 -0.246728 0.750735 -0.322771 0.074527 0.182784 -0.138695 -0.786625 0.346252 -0.083852 0.393005
-0.382820 -0.473512 0.401866 -0.533096 -0.534642 -0.051316 1.041492 -0.537565 -0.903453 -0.716669 -0.448139 -0.383880 -0.481120 -0.200085 0.684098 0.349634 0.929070 -0.547716 -0.107735 0.592679 0.185228 0.786090 0.044727 0.793270 -0.875033
0.835063 0.809208 0.066117 0.233192 -0.909233 0.040892 0.813908 0.150705 -0.976496 -0.434009 0.473974 -0.978602 0.729661 -0.055189 -0.712769 0.943517 0.233729 0.056107 0.885015 0.583248 -0.306964 0.786234 -0.707640 -0.362810 0.960715
-0.565708 -0.842668 -0.269945 -0.931255 -0.031130 0.347891 -0.541640 0.466789 -0.766662 0.246354 0.572937 -0.154806 -0.731333 -0.448392 -0.113794 -0.847686 0.482378 0.295328 -0.452167 -0.810389 0.259163 -0.526794 -0.079267 0.446008 -0.720686
0.853878 -0.092263 0.714744 -0.263920 0.853536 0.636500 -0.447317 -0.850267 -0.322832 -0.813982 0.535426 0.600533 -0.290291 0.670128 0.458208 0.662474 0.855786 -0.515623 -0.362337 0.522357 -0.827527 0.140537 0.340104 0.652886 -0.155067
-0.926713 0.517328 -0.190984 0.797008 0.077390 -0.481915 -0.747519 0.548972 -0.445545 -0.844217 0.873971 -0.194013 0.073133 0.595905 -0.125840 -0.877874 0.339515 0.123516 -0.975708 0.458761 -0.528156 -0.479469 0.901945 0.290360 0.854454
-0.157268 0.820679 0.834247 0.190985 -0.293277 0.885504 -0.818355 0.641092 0.522583 -0.735021 -0.452250 0.948349 -0.266538 -0.232652 0.747929 0.750588 -0.049687 0.485165 0.412383 -0.473287 -0.526685 -0.586658 -0.691663 0.251269 -0.569067
-0.266602 -0.872020 0.430883 -0.401121 0.577915 -0.012024 -0.094825 0.219067 -0.158880 -0.946123 -0.329156 -0.568094 -0.916951 0.429548 0.708734 -0.062074 -0.134069 0.635811 0.628683 0.524814 0.661675 -0.016977 -0.816332 0.737788 0.542005
0.076307 0.126797 -0.129201 -0.144100 -0.936545 0.902397 0.171175 -0.943830 -0.648666 -0.205494 0.461035 -0.440718 0.392893 0.859413 -0.194242 -0.265404 -0.780337 -0.030606 0.570205 -0.817835 0.080537 0.744938 -0.690101 -0.617756 0.692991
-0.435454 -0.478811 0.124770 0.949920 0.215021 -0.938404 0.449539 -0.178788 -0.928389 -0.704214 -0.025522 -0.801883 -0.142490 -0.829995 -0.664064 0.023719 -0.727905 0.284375 -0.776473 0.602301 -0.769929 0.386003 -0.863681 -0.197401 0.528647
-0.956335 -0.779523 0.330284 -0.967575 -0.956819 0.706701 0.753444 -0.963451 -0.746369 -0.971486 0.350443 0.251638 0.532424 -0.412623 -0.020890 0.586688 -0.607547 -0.172979 0.364670 0.677297 0.309891 0.647782 0.702952 0.695643 0.053665
0.377180 0.669772 0.980274 0.280784 0.072072 -0.822946 -0.697292 0.418165 -0.054562 -0.517649 -0.981963 -0.622803 0.927182 -0.299307 -0.730138 0.816950 0.131369 -0.256179 -0.898688 0.619538 -0.104971 -0.931400 -0.818913 0.266963 0.246861
-0.443993 -0.489274 0.455511 0.877348 0.675087 -0.369923 -0.385092 -0.868666 0.173415 -0.919397 -0.385727 -0.795512 -0.313858 0.936680 -0.983077 -0.083139 0.160350 -0.829574 -0.729079 0.120517 -0.574123 0.671994 0.981774 0.683259 -0.869214
-0.240142 0.727657 -0.137218 0.973082 0.061973 0.313033 -0.060654 -0.073200 -0.547746 -0.271957 0.233419 0.885604 0.505724 -0.683514 -0.104011 0.393399 -0.145060 -0.375323 0.971449 0.734473 0.918676 -0.256255 0.786320 0.406719 0.298841
0.271827 0.606244 0.286904 -0.167709 0.588129 -0.285869 0.130689 -0.760175 -0.171758 -0.196960 -0.502122 0.366663 0.038791 0.788750 -0.177711 -0.600460 0.785001 0.011654 0.036341 0.388116 -0.293942 -0.566087 0.310199 -0.889886 0.682335
-0.691126 0.963770 0.207626 -0.674241 0.282048 0.968545 -0.364548 -0.901855 -0.293093 -0.764578 0.769737 -0.296522 -0.922014 0.459674 -0.486859 0.435018 0.704719 0.527727 0.266937 -0.258302 0.795969 0.275789 -0.947616 -0.918825 0.510301
0.954774 -0.077676 -0.300845 0.278480 -0.807723 0.567825 -0.970536 -0.506129 0.031877 0.896799 0.396569 0.807591 -0.562378 -0.212822 -0.014552 0.706732 -0.835362 -0.586975 0.025607 -0.693973 0.525174 0.952964 0.547232 0.186299 -0.303519
-0.034802 -0.844736 -0.156898 -0.158773 -0.891380 -0.844763 0.732985 0.260276 0.623685 -0.826043 0.055434 -0.757188 0.786696 -0.082247 -0.560225 0.423261 -0.750764 0.606181 -0.576273 -0.415437 -0.234105 -0.791842 -0.714408 -0.575256 -0.048355
0.112649 -0.380681 -0.987834 -0.487468 0.496452 0.105880 -0.647390 0.578040 -0.979609 -0.899371 0.279772 -0.048556 0.445052 0.453806 -0.117658 0.882276 -0.435363 -0.518679 -0.012482 0.972512 0.837183 0.691893 0.508895 0.598682 0.622012
0.645045 0.576006 -0.552142 -0.718794 -0.133962 0.662411 -0.984842 -0.725372 -0.133682 -1.002194 -0.614155 -0.662160 1.064973 0.471861 0.800019 0.933266 0.757014 0.377566 0.942432 -0.113576 0.298003 -0.001080 -1.050147 -0.680825 -0.707038
-0.106862 0.170856 -0.399896 0.301410 -0.950429 -0.779625 -0.958114 -0.011284 0.148752 -0.349587 0.747349 -0.746136 -0.200473 0.515751 -0.714320 -0.125751 0.037949 0.613045 -0.506141 -0.504316 -0.016449 -0.666127 -0.696863 -0.209692 0.205024
-0.852048 0.994538 -0.683140 0.053852 -0.851828 0.835071 -0.880994 0.482087 -0.113416 -0.245420 0.865271 -0.018949 -0.362284 -0.399324 0.471271 0.023805 -0.244121 -0.795321 -0.165092 -0.052020 0.299100 -0.614827 -0.142259 0.175415 0.935643
-0.410377 -0.879204 0.421136 -0.770742 0.416797 0.390123 -0.526733 0.608921 0.311237 0.744112 0.973511 0.127468 0.596853 0.925560 0.392373 0.728093 0.292220 -0.626492 0.660137 -0.997585 0.279771 -0.719693 0.443027 0.226536 -0.611462
0.804900 0.005780 -0.135088 0.868015 0.469965 -0.364592 0.096401 -0.768354 0.129465 0.963387 0.477605 -0.905950 -0.590143 -0.588686 0.903281 -0.703971 0.535366 0.117404 0.553707 0.096361 -0.257577 -0.396659 0.002630 0.568122 0.796516
-0.046830 -0.183589 0.155241 -0.690230 0.543061 -0.827440 0.599167 0.198175 0.288390 -0.416320 0.972210 0.799592 0.292470 -0.911431 -0.995826 0.194354 -0.302277 0.393200 -0.137975 0.437674 -0.320480 0.803606 0.684934 -0.866997 0.802823
-0.687837 0.966366 -0.358903 -0.768854 0.843635 -0.540708 -0.290037 0.839618 0.574134 0.612992 0.627742 -0.270244 0.354198 -0.639982 0.683223 -0.540094 0.366006 -0.528316 -0.101857 -0.669806 0.668730 0.857971 0.416982 0.607528 0.281731
-0.558776 0.627917 0.830129 -0.572523 0.573709 0.393399 -0.622104 0.507228 0.326770 -0.895247 -1.123030 -0.708085 -1.066365 -0.996603 0.411679 -0.240112 -0.740418 -0.683727 0.070811 -0.000985 0.772198 -0.457316 0.653870 0.082477 0.639931
-0.679532 0.399928 -1.255057 0.695641 -0.223161 0.400934 -0.646193 0.650854 0.030603 0.823616 -0.758037 -0.418097 -0.797983 1.021038 1.272275 -0.737512 0.519411 0.018167 -1.123076 1.006660 -0.592794 0.759447 -0.285884 1.279720 -0.191303
0.204447 -0.675295 -0.467112 -0.862821 0.613823 0.672654 -0.766097 -0.238158 0.363393 -0.490249 -0.777883 -0.990592 0.530049 -0.594016 -0.674117 0.336797 -0.153046 0.326036 0.135813 0.835933 -0.210472 -1.032207 0.546516 -0.151416 -0.016112
0.927069 0.444160 0.849385 0.403642 0.275204 -0.229777 0.022587 0.366211 -0.652682 -0.881660 0.752638 -0.567901 -0.335222 0.479027 -0.691370 0.462403 -0.567935 -0.914779 -0.075841 -0.766042 -0.914103 -0.934330 -0.060965 0.802263 0.917518
-0.266261 0.110368 0.401720 -0.087378 -0.842281 0.818327 0.080825 -0.844136 -0.483787 -0.270540 0.979558 -0.691849 0.844697 0.433669 -0.709288 0.269599 0.949862 -0.238981 -0.529999 -0.499991 -0.006997 0.862679 0.397639 -0.575230 0.795563
-0.933946 -0.677035 -0.114159 -0.662660 0.604208 -0.046139 -0.764463 0.571490 0.610583 0.687057 -0.556864 0.965925 0.729201 0.321340 0.497301 -0.985672 -0.618986 0.914738 0.517085 -0.301061 -0.320998 0.375815 0.572265 0.936180 0.636387
-0.441564 0.182425 -0.030973 -0.229383 -0.443651 0.965541 0.528606 0.035349 -0.802068 0.513051 -0.000609 -0.047019 0.069675 -0.324774 0.475904 -0.154187 0.902307 -0.227762 0.360193 -0.777488 0.978320 0.726091 0.209343 -0.044754 0.335748
-0.816200 -0.362820 0.250041 0.440380 -0.082044 -0.178460 -0.247790 -0.845367 -0.211851 -0.173141 -0.953899 0.970659 0.263877 -0.836311 0.546662 0.507940 0.555792 -0.855421 0.738794 0.539034 0.644555 0.189739 0.576690 -0.420233 -0.694567
-0.808634 0.571657 0.393756 -0.552481 0.223078 0.966622 -0.527395 -0.656720 0.319274 -0.478159 0.713615 -0.918427 -0.281464 0.894119 -0.083994 -0.534227 0.419487 -0.316285 -0.858835 0.029936 0.938651 0.863059 0.185613 0.941404 -0.923738
-0.110217 -0.679056 -0.498881 0.348383 -0.244810 -0.590996 -0.102597 -0.145524 -0.573542 0.205608 0.272185 0.851502 -0.051802 -0.706664 1.483700 -0.003530 0.756382 0.204717 -0.891852 0.072583 -0.895960 0.284006 -1.235202 -0.853011 -0.139789
0.949540 0.071362 0.704732 0.604713 0.058737 0.094367 0.528027 -0.833984 0.512113 0.337781 0.019184 -0.910194 -0.153021 0.628564 -0.153244 0.672834 0.894258 0.959219 -0.012883 0.588410 -0.840749 -0.431933 0.958938 0.601754 -0.098644
0.004200 -0.074458 -0.701579 -0.820894 -0.414160 0.681640 0.150061 -0.106574 -0.517880 0.803547 0.118458 0.788493 -0.677857 0.029733 -0.225821 -0.756393 0.286150 -0.879256 -0.082169 -0.329982 -0.661116 -0.369544 0.668735 -0.684457 -0.461953
0.601027 -0.547420 -0.724342 0.873148 0.079445 0.257756 -0.158866 -0.292247 0.557651 -0.128845 0.905190 -0.075600 0.073029 0.357106 0.647541 -0.744772 -0.457058 0.483990 0.972899 -0.038917 -0.701086 -0.792056 0.769879 0.159688 0.369428
0.090460 -0.677411 0.224560 -0.099855 0.420263 -0.792727 -0.633186 0.983930 -0.984570 0.031586 0.448551 -0.130010 -0.040199 -0.662759 -0.714483 -0.546941 0.983690 0.739538 0.135631 -0.116856 0.535813 -0.542704 -0.371201 -0.328206 0.002112
-0.513629 -0.915674 -0.902068 0.823121 0.150025 -0.130970 -0.121918 0.645285 -0.952193 0.103491 0.327237 -0.678532 -0.474961 0.601805 0.552171 0.342833 -0.544222 -0.933835 -0.481694 -0.069191 0.428966 0.254100 0.201023 -0.702091 -0.934056
0.804577 0.666476 0.717528 -0.851585 -0.910509 0.959849 -0.712431 0.090579 0.611693 0.997574 -1.016933 0.511727 -0.397027 -0.642142 0.587983 -0.513691 0.494637 0.582851 -0.643109 -1.080731 -0.164461 1.070210 0.498012 0.354456 0.061598
0.580468 0.409543 -0.495973 -0.180081 -0.015399 -0.221944 -0.791537 -0.030838 0.205301 -0.021333 -0.052053 0.036305 0.300848 -0.004979 0.653160 0.498960 0.729487 -0.470094 0.982510 0.932733 0.502377 0.982734 -0.377640 0.775710 -0.837637
-0.221878 -0.254177 -0.790357 0.374499 -0.689613 0.880158 0.453242 0.718638 0.626194 -0.149247 0.649456 0.500144 0.293062 -0.296576 -0.584609 0.632925 -0.824984 -0.565061 -0.691287 0.120065 0.815278 -0.745932 -0.215885 -0.521648 -0.579521
0.349398 0.345281 -0.862639 0.173361 -0.014013 -0.832885 0.950344 0.756687 0.521493 0.140020 -0.962818 -0.080647 -0.260805 -0.039951 -0.066227 -0.424120 -0.657802 -0.942035 -0.490583 -0.349161 -0.289078 0.056500 0.938086 -0.709235 0.151672
-0.365199 -0.157487 0.917080 -0.900778 0.827327 -0.204067 -0.027894 0.918461 -0.464007 0.154439 0.047222 0.196046 0.067685 0.328174 0.852979 -0.796727 0.083968 0.052437 -0.114831 -0.780259 -0.251779 -0.918910 0.893779 0.348488 -0.951410
0.448280 -0.459142 -0.252985 0.717133 0.882540 0.299965 -0.812531 0.381875 0.486388 -0.917312 -0.199536 -0.287348 0.764027 -0.271936 0.651511 0.900619 -0.514814 -0.976206 -0.410655 0.137133 0.583449 -0.379973 -0.514927 -0.827340 -0.315541
0.021794 -0.434938 1.104562 0.570799 0.523866 0.239393 0.644246 0.823859 0.018976 -0.729816 0.084069 0.104930 -0.750317 0.592017 -0.042212 1.018250 0.365546 -0.995654 0.930941 0.677074 0.034101 0.505010 0.808385 0.684190 0.823477
-0.902391 0.519118 0.010388 0.294825 -0.818876 -0.826122 -0.436370 -0.136562 -0.681753 -0.420855 0.435000 -0.818750 0.856802 0.922778 0.855984 -0.944379 0.763996 0.210305 -1.249762 0.504842 -0.455557 -0.226828 -0.593266 0.196197 -0.433797
-0.167227 -0.951168 -0.333891 -0.350223 0.792590 -0.333242 -0.735537 0.029165 0.420931 -0.021571 0.532408 0.119315 -0.742542 0.829681 -0.014127 0.121428 -0.125215 0.852171 0.116214 0.370177 0.521090 -0.277256 0.422663 0.400874 0.073563
-0.349429 -0.281305 0.027933 0.966976 0.410683 -0.768470 -0.759726 -0.301109 -1.007193 -0.099011 0.103040 0.680080 0.856496 -0.728518 -0.786286 0.504691 0.918618 0.653442 -0.607568 -0.439616 0.599421 0.383176 0.711077 -0.292022 -0.848365
-0.909143 -0.858125 -0.131093 0.857258 0.821299 0.865058 0.860235 -0.536105 -0.613229 0.519835 0.947092 -0.847416 0.597577 -0.784048 0.353198 0.617828 0.070809 -0.251984 -0.069850 -0.385661 0.500928 0.319766 0.214778 0.762804 0.032726
-0.705294 -0.097721 -0.720352 -0.510047 0.526574 0.657439 -0.274849 0.065504 -0.778319 -0.321826 -0.315041 -0.279918 0.029283 0.170022 -0.665058 0.365306 0.446148 0.410652 -0.162272 0.840420 0.512121 1.033170 0.838858 0.033178 0.636231
-0.512619 -0.775181 0.293615 -0.174209 -0.038999 -0.715269 0.393639 0.552920 0.036386 -0.899863 -0.863061 -0.269863 -0.195137 0.559529 0.421898 1.005675 0.150081 0.742078 0.995917 0.318467 0.792855 -0.262697 -0.922443 0.398986 0.169576
-0.833544 0.792490 0.606535 -0.665917 0.802644 0.433859 0.693654 0.889721 0.617971 0.147509 -0.845696 0.108700 0.021009 0.521624 0.400395 -0.687168 0.578268 0.829408 -0.792057 -0.622975 -0.195952 0.386827 -0.207580 -0.067236 0.673271
0.208432 0.259200 0.062292 -0.009334 0.261083 -0.530105 -0.677658 -0.741262 0.829146 0.317279 -0.411479 0.251060 -0.110336 0.608366 -0.090511 -0.961621 -0.015736 -0.486299 0.232765 0.380649 -0.483474 0.529513 -0.876142 -0.884162 0.018317
-0.370837 -0.327855 1.399343 0.982522 0.916352 0.879477 -0.145085 0.114699 -0.949061 0.802064 0.113141 -0.129084 0.437393 0.183265 0.063030 -0.122654 -0.883994 -0.977274 0.498402 -0.830376 0.465976 -0.321391 0.007905 -0.138078 -0.228795
-0.603788 -0.408639 0.273568 0.342234 -0.500544 0.938259 0.315255 0.885683 0.217793 -0.553903 -0.829148 -0.068466 -0.270352 0.101147 0.178844 0.564359 0.850012 -0.591804 0.658008 -0.498494 0.789441 0.307306 -0.163732 0.617361 0.022201
w
-0.605846 0.289860 0.595828 -0.651510 -0.396905 0.769886 0.111595 0.675451 -0.935030 -0.865668
1.130689 0.148069 -0.106813 0.716923 -0.034253 -0.537856 0.803873 0.845657 -0.764884 0.012017
2.202849 -0.276499 2.214133 0.025500 -0.862477 -0.846748 0.696043 0.291678 -0.047741 -1.873143
1.023370 0.499886 -0.046495 -0.375760 0.666841 0.658009 0.422519 -0.056942 0.303610 -0.203142
0.813071 -0.702174 0.251403 -0.528748 0.595929 0.368777 -0.370700 0.390938 -0.344926 0.690090
-0.315822 -0.293019 -0.417587 -0.781799 -0.842570 0.424645 0.856704 -0.398900 -0.925850 0.510925
-0.145281 -0.471041 -1.236457 -1.018589 -0.865958 0.405431 -0.616580 0.050396 0.356127 0.195006
-1.329627 -0.113446 -0.915033 -0.656921 1.019043 -0.751466 0.915117 -0.680461 0.476152 0.705683
-0.158898 -0.932958 -1.210297 -0.807984 0.887869 0.228194 1.016651 -0.527379 -0.228923 1.015197
0.731485 0.061107 0.564559 -0.756669 0.365092 -0.349747 0.314360 -0.469829 0.347824 -0.470930
-0.151436 0.462492 -0.870726 -0.125497 0.998762 -0.725006 0.829030 -0.990365 0.514709 1.653629
0.644276 -0.300652 -0.074129 -0.167910 0.367864 0.348524 -0.433931 -0.576001 0.013300 -0.438559
0.356643 -0.822825 -0.924606 -0.911221 -0.774512 0.352924 0.816766 0.143950 1.028537 0.676950
-1.244632 -0.733388 -0.884731 -0.760717 -0.055165 0.145334 0.273955 0.586144 -0.589375 -0.056992
-1.665660 -0.264000 -0.198987 -0.134512 0.976566 -0.413253 0.614163 -0.661598 -0.933533 1.420180
0.941946 -0.788988 0.287197 0.602866 0.453076 0.637480 0.361598 -0.539946 -0.276506 -0.118988
-0.313211 0.866178 1.248628 0.303400 -0.873587 -0.756991 -0.167737 0.392410 0.519267 -1.085773
-0.871160 -0.724309 -0.814238 -0.870576 -0.511771 0.292164 -0.717754 -1.056953 -0.945047 0.240918
0.710957 -0.304787 1.679135 0.494454 -0.942777 0.700332 0.311644 0.836105 -0.417814 -1.777444
-1.449831 0.704939 -1.746127 0.594643 -0.342863 -0.072533 0.610729 -0.650443 -0.987952 1.219794
1.117096 0.322700 1.092395 -0.971002 0.436656 -0.238573 -0.060634 0.247683 0.175378 -0.539713
0.679360 -0.399241 1.448311 -0.600411 0.097792 0.898116 -0.810168 0.693099 0.024316 -1.397266
0.221868 -0.109967 1.089815 0.178986 0.154982 0.307505 0.606508 0.863249 -0.514371 -0.845205
-0.641346 0.308219 -1.953683 -0.763371 1.139605 -0.716998 0.106699 0.063944 -0.098156 0.817346
0.312587 0.143854 0.711402 -0.784725 -0.358036 -0.248517 -0.946210 -0.044630 0.024165 -0.471087
w
3.353740
0.354437
4.909035
-0.803179
-2.057853
0.058734
-1.144327
0.955853
-0.379971
-4.673253
#
-0.044017 -0.608689 -0.346117 -0.328379 -0.459889 -0.682173 -0.960425 -0.838143 -0.605343 -0.704902 -0.079133 -0.382220 -0.141806 -0.400669 -1.054831 -0.515949 -0.543974 -0.576321 -0.190921 -0.205577 -0.975482 -0.505684 -0.635850 -0.797937 -0.632346
-0.162205 0.141277 0.160995 -0.600224 -0.011011 -0.021749 -0.389847 0.169965 -0.901086 -0.347784
0.490482
